digraph Tree {
node [shape=box, style="filled, rounded", color="black", fontname=helvetica] ;
edge [fontname=helvetica] ;
0 [label="petal length (cm) <= 2.45\ngini = 0.666\nsamples = 135\nvalue = [47, 45, 43]\nclass = setosa", fillcolor="#e5813906"] ;
1 [label="gini = 0.0\nsamples = 47\nvalue = [47, 0, 0]\nclass = setosa", fillcolor="#e58139ff"] ;
0 -> 1 [labeldistance=2.5, labelangle=45, headlabel="True"] ;
2 [label="petal width (cm) <= 1.75\ngini = 0.5\nsamples = 88\nvalue = [0, 45, 43]\nclass = versicolor", fillcolor="#39e5810b"] ;
0 -> 2 [labeldistance=2.5, labelangle=-45, headlabel="False"] ;
3 [label="petal length (cm) <= 4.95\ngini = 0.12\nsamples = 47\nvalue = [0, 44, 3]\nclass = versicolor", fillcolor="#39e581ee"] ;
2 -> 3 ;
4 [label="gini = 0.0\nsamples = 42\nvalue = [0, 42, 0]\nclass = versicolor", fillcolor="#39e581ff"] ;
3 -> 4 ;
5 [label="petal width (cm) <= 1.55\ngini = 0.48\nsamples = 5\nvalue = [0, 2, 3]\nclass = virginica", fillcolor="#8139e555"] ;
3 -> 5 ;
6 [label="gini = 0.0\nsamples = 2\nvalue = [0, 0, 2]\nclass = virginica", fillcolor="#8139e5ff"] ;
5 -> 6 ;
7 [label="sepal length (cm) <= 6.95\ngini = 0.444\nsamples = 3\nvalue = [0, 2, 1]\nclass = versicolor", fillcolor="#39e5817f"] ;
5 -> 7 ;
8 [label="gini = 0.0\nsamples = 2\nvalue = [0, 2, 0]\nclass = versicolor", fillcolor="#39e581ff"] ;
7 -> 8 ;
9 [label="gini = 0.0\nsamples = 1\nvalue = [0, 0, 1]\nclass = virginica", fillcolor="#8139e5ff"] ;
7 -> 9 ;
10 [label="petal length (cm) <= 4.85\ngini = 0.048\nsamples = 41\nvalue = [0, 1, 40]\nclass = virginica", fillcolor="#8139e5f9"] ;
2 -> 10 ;
11 [label="sepal length (cm) <= 5.95\ngini = 0.444\nsamples = 3\nvalue = [0, 1, 2]\nclass = virginica", fillcolor="#8139e57f"] ;
10 -> 11 ;
12 [label="gini = 0.0\nsamples = 1\nvalue = [0, 1, 0]\nclass = versicolor", fillcolor="#39e581ff"] ;
11 -> 12 ;
13 [label="gini = 0.0\nsamples = 2\nvalue = [0, 0, 2]\nclass = virginica", fillcolor="#8139e5ff"] ;
11 -> 13 ;
14 [label="gini = 0.0\nsamples = 38\nvalue = [0, 0, 38]\nclass = virginica", fillcolor="#8139e5ff"] ;
10 -> 14 ;
}